{"type":"NeuralNetwork","sizes":[3,20,20,1],"layers":[{"weights":[],"biases":[]},{"weights":[[-2.5434720516204834,1.9179664850234985,-5.295091152191162],[-5.5007524490356445,1.0022872686386108,3.8968303203582764],[0.6145564913749695,1.1528962850570679,-13.92308521270752],[-1.0175905227661133,-1.3237345218658447,2.1917078495025635],[8.407249450683594,0.006566624157130718,-24.06968116760254],[9.17823600769043,-0.7267364859580994,-11.3742094039917],[-1.010001540184021,-1.3324062824249268,2.0513901710510254],[-1.0650378465652466,-1.3541550636291504,3.102656364440918],[2.962628126144409,1.5910669565200806,-27.88418197631836],[-1.0599037408828735,-1.3728759288787842,3.0875961780548096],[-6.019833564758301,1.0794512033462524,4.059375762939453],[-1.033825159072876,-1.3036749362945557,2.457430839538574],[5.463447570800781,0.3886323869228363,-23.601219177246094],[3.9529833793640137,-1.2705546617507935,-14.398589134216309],[1.967124581336975,-0.24977636337280273,-25.891263961791992],[7.190097808837891,0.41765204071998596,-17.38239288330078],[-1.0640854835510254,-1.3332432508468628,3.039163589477539],[-1.054585337638855,-1.2776144742965698,2.7311880588531494],[4.05631160736084,-0.18887165188789368,-10.106293678283691],[5.877345561981201,-1.4271094799041748,-0.80628901720047]],"biases":[2.8306894302368164,0.2903207540512085,0.3267453610897064,-1.1788277626037598,-13.481858253479004,-11.038263320922852,-1.0413695573806763,-1.9357064962387085,-6.180722236633301,-1.9075052738189697,0.9468201994895935,-1.4251964092254639,-17.93297576904297,-11.079802513122559,-3.8864524364471436,-8.400908470153809,-1.9006092548370361,-1.686538815498352,-10.698837280273438,-4.605934143066406]},{"weights":[[0.035588208585977554,0.5604733228683472,-0.35944947600364685,-0.04865524172782898,-3.4919464588165283,-1.061121940612793,-0.012549981474876404,-0.19987723231315613,-0.26302316784858704,-0.266149640083313,0.5550531148910522,-0.16133399307727814,-0.7443820834159851,-0.7483403086662292,-0.28827354311943054,-0.6661045551300049,-0.2331538051366806,-0.20887374877929688,-0.5871890783309937,-0.8599986433982849],[0.032295163720846176,0.17234821617603302,-0.29556798934936523,-0.19113001227378845,-3.515583038330078,-1.0809009075164795,-0.2559863328933716,-0.26766857504844666,-0.245896115899086,-0.16304266452789307,0.4155615270137787,-0.26399511098861694,-0.6820483207702637,-0.7913540005683899,-0.23614726960659027,-0.701422393321991,-0.2474324256181717,-0.3692142367362976,-0.33798521757125854,-0.6946659684181213],[0.15771088004112244,1.5031545162200928,-0.45715928077697754,0.1842726767063141,-3.458016872406006,-0.9910203814506531,-0.06438852846622467,0.214630588889122,-0.6748557090759277,0.1887694001197815,2.064100742340088,-0.13394950330257416,-0.5847660899162292,-0.7175512909889221,-0.23442426323890686,-0.6000373363494873,0.3172096312046051,0.04306084290146828,-0.9017361402511597,-1.234168529510498],[0.0832161009311676,-0.14632272720336914,-0.4308355748653412,-0.4660506248474121,-3.6004631519317627,-1.1231629848480225,-0.5607176423072815,-0.34397852420806885,-0.14668190479278564,-0.5381933450698853,-0.28082209825515747,-0.228933185338974,-0.5543471574783325,-0.8494813442230225,-0.20972956717014313,-0.7475219964981079,-0.3698901832103729,-0.30735957622528076,-0.0317251943051815,-0.540351927280426],[1.4387720823287964,-0.34591352939605713,1.0663137435913086,-4.2094902992248535,0.8967670202255249,0.14998741447925568,-4.017214775085449,-4.509453296661377,1.9514927864074707,-4.417441368103027,-0.5140143632888794,-3.9569029808044434,12.387992858886719,12.601968765258789,1.8271394968032837,0.6899417638778687,-4.308696746826172,-4.058477401733398,-0.23098574578762054,-1.4835811853408813],[0.1017131581902504,0.46724310517311096,-0.3623291254043579,-0.2784597873687744,-3.628251552581787,-1.0757218599319458,-0.2699127495288849,-0.1658770591020584,-0.4114624559879303,-0.07036586850881577,0.48231208324432373,-0.351644903421402,-0.6818196177482605,-0.9119621515274048,-0.2635328769683838,-0.6878044605255127,-0.3204088509082794,-0.05763695389032364,-0.3008135259151459,-0.7038636207580566],[0.18553154170513153,0.508622407913208,-0.5038421154022217,-0.16655604541301727,-3.537105083465576,-1.0478163957595825,-0.25718939304351807,0.02757013402879238,-0.2338399589061737,0.048093825578689575,0.9056386351585388,-0.12177073210477829,-0.787492036819458,-0.8380236625671387,-0.12280911952257156,-0.6598098874092102,-0.23214222490787506,-0.13016371428966522,-0.533258855342865,-0.8638835549354553],[2.159252405166626,-0.6647744178771973,2.1005985736846924,-2.1728665828704834,1.2262024879455566,0.21198154985904694,-2.4540677070617676,-2.6583218574523926,17.431379318237305,-2.8522682189941406,-0.6951249241828918,-2.4429523944854736,2.5335683822631836,1.550614356994629,2.502861499786377,2.2086846828460693,-2.824838638305664,-2.4437506198883057,-1.4555166959762573,-2.5008840560913086],[1.1124151945114136,-0.6533808708190918,0.8300068378448486,-1.9002361297607422,2.498248338699341,-1.4542807340621948,-1.996201515197754,-2.115724563598633,0.7567752003669739,-2.065398693084717,-0.6594974994659424,-2.3138575553894043,-3.61140513420105,-4.14008092880249,0.737389087677002,1.2944411039352417,-2.0962562561035156,-2.269691228866577,1.9003956317901611,-3.5773990154266357],[0.12835761904716492,0.8490120768547058,-0.45955371856689453,-0.033198144286870956,-3.4961225986480713,-1.0394446849822998,0.11272569745779037,-0.14556507766246796,-0.4109751582145691,-0.26505783200263977,0.835246205329895,-0.06334023177623749,-0.7920656204223633,-0.7083204984664917,-0.21799719333648682,-0.6466834545135498,-0.04585210233926773,-0.038791388273239136,-0.6504190564155579,-0.9074445366859436],[0.2924095690250397,1.8031797409057617,-0.6229662895202637,0.10394996404647827,-3.400178909301758,-0.9446340799331665,0.4029603600502014,-0.033583059906959534,-0.744422197341919,0.2735680341720581,2.6093547344207764,0.2838760018348694,-0.4884128272533417,-0.5690166354179382,-0.47311723232269287,-0.5580114722251892,0.6231380701065063,0.2020280808210373,-1.0430618524551392,-1.4997680187225342],[0.707772970199585,-0.6128721833229065,0.5952491164207458,-2.3145430088043213,2.540923833847046,-1.6625876426696777,-2.041037082672119,-2.168825387954712,0.2615872323513031,-2.1782338619232178,-0.5497798919677734,-2.2362637519836426,-3.7660255432128906,-4.062736511230469,0.7027708888053894,1.288007378578186,-2.1981678009033203,-2.1194939613342285,1.9359418153762817,-3.446544647216797],[4.002715587615967,-0.6410039663314819,1.714353084564209,-1.6340570449829102,2.627230644226074,-2.0535354614257812,-1.8149563074111938,-2.1947853565216064,6.17451286315918,-2.2525808811187744,-0.6806559562683105,-1.9568971395492554,-1.5486561059951782,-2.4018502235412598,1.9242795705795288,2.264134168624878,-2.1233882904052734,-2.3043601512908936,-0.19451816380023956,-3.168267011642456],[5.228366374969482,-0.6134352087974548,2.4781084060668945,-1.4497065544128418,2.8806827068328857,-0.48147401213645935,-1.0882680416107178,-2.080423593521118,8.003013610839844,-2.1043758392333984,-0.49443376064300537,-1.6311050653457642,-3.246978521347046,-2.1713662147521973,0.05478736385703087,2.6592328548431396,-2.3524110317230225,-1.9118372201919556,-0.897015392780304,-2.600788116455078],[2.2165372371673584,-0.6666180491447449,1.441133737564087,-1.9927698373794556,2.4355390071868896,-2.3019042015075684,-1.8650223016738892,-2.292314052581787,0.7483148574829102,-2.2926840782165527,-0.6054820418357849,-2.2996490001678467,-3.5590903759002686,-4.1003007888793945,0.8935754895210266,1.6047289371490479,-2.352856397628784,-2.2722113132476807,1.7967610359191895,-3.6862783432006836],[0.1066613644361496,0.7536098957061768,-0.4011768698692322,-0.11685836315155029,-3.5359559059143066,-1.0536375045776367,0.04002244770526886,-0.019558701664209366,-0.4420226514339447,-0.10591816902160645,0.9159255623817444,-0.035020019859075546,-0.8009886145591736,-0.633319079875946,-0.24258454144001007,-0.6594809889793396,-0.37552446126937866,-0.2996462285518646,-0.5767138600349426,-0.8590770363807678],[0.25677111744880676,1.25142502784729,-0.4240966737270355,0.10214147716760635,-3.4437506198883057,-1.0064921379089355,-0.05501372367143631,0.016709625720977783,-0.47904133796691895,-0.03549254685640335,1.689496397972107,0.18462049961090088,-0.7871967554092407,-0.5506033301353455,-0.28982463479042053,-0.6195372939109802,-0.05861428752541542,0.27347415685653687,-0.8404346704483032,-0.9479302167892456],[0.7709028720855713,-0.4761785566806793,0.490498423576355,-2.1297812461853027,2.5382885932922363,-1.3780548572540283,-2.2340123653411865,-2.279984951019287,0.11799520999193192,-2.0547657012939453,-0.4462689459323883,-2.068697690963745,-3.7568655014038086,-3.9185564517974854,0.466904878616333,1.365770697593689,-2.0382134914398193,-2.424698829650879,1.8209664821624756,-3.147362470626831],[1.3941020965576172,-0.7662800550460815,0.8448662161827087,-1.8994355201721191,2.478693723678589,-1.4455723762512207,-1.9194010496139526,-2.230863332748413,0.3411716818809509,-2.1025657653808594,-0.4285784065723419,-2.043494939804077,-3.6062285900115967,-4.075608253479004,0.7162134647369385,1.371170163154602,-2.0946455001831055,-2.0473265647888184,1.869559407234192,-3.3209853172302246],[-0.17739947140216827,-0.25027546286582947,0.11810388416051865,-1.8702147006988525,2.5385923385620117,-0.8951745629310608,-1.7147184610366821,-2.2043967247009277,0.07693473994731903,-1.697851538658142,-0.40842747688293457,-1.7638334035873413,-3.6186232566833496,-3.892209768295288,0.26326125860214233,1.2490606307983398,-1.8511013984680176,-2.1240663528442383,1.7528350353240967,-3.693101644515991]],"biases":[-2.0508832931518555,-2.173485517501831,-1.8882652521133423,-2.238410234451294,-1.628462553024292,-2.162846803665161,-2.072676658630371,-2.5738065242767334,-3.666698694229126,-2.044334888458252,-1.8599027395248413,-3.6585981845855713,-3.424609899520874,-6.160116672515869,-2.873945474624634,-2.0550544261932373,-2.095900774002075,-4.223998546600342,-3.963733673095703,-3.9772207736968994]},{"weights":[[3.2165143489837646,3.2168283462524414,3.453742027282715,3.1780152320861816,-0.9152638912200928,3.1678757667541504,3.226672649383545,-1.3661999702453613,-1.9836596250534058,3.2079966068267822,3.9841721057891846,-1.9862430095672607,-2.727308511734009,-3.9961230754852295,-1.9920682907104492,3.1800336837768555,3.2976295948028564,-1.9976874589920044,-1.9896289110183716,-1.9908454418182373]],"biases":[-0.6715198755264282]}],"inputLookup":{"slot":0,"type":1,"isFree":2},"inputLookupLength":3,"outputLookup":{"near":0},"outputLookupLength":1,"options":{"inputSize":0,"outputSize":0,"binaryThresh":0.5,"hiddenLayers":[20,20],"log":true},"trainOpts":{"activation":"sigmoid","iterations":10000,"errorThresh":0.005,"log":true,"logPeriod":10,"leakyReluAlpha":0.01,"learningRate":0.3,"momentum":0.1,"callbackPeriod":10,"timeout":"Infinity","beta1":0.9,"beta2":0.999,"epsilon":1e-8}}